<?xml version="1.0"?>
<opencv_storage>
<stage0>
  <maxWeakCount>9</maxWeakCount>
  <stageThreshold>-1.4717744588851929e+00</stageThreshold>
  <weakClassifiers>
    <_>
      <internalNodes>
        0 -1 31350 -3.4234058856964111e-01</internalNodes>
      <leafValues>
        1.1111111193895340e-01 -6.8177437782287598e-01</leafValues></_>
    <_>
      <internalNodes>
        0 -1 127344 2.3296833387576044e-04</internalNodes>
      <leafValues>
        3.6334317177534103e-02 -7.4730491638183594e-01</leafValues></_>
    <_>
      <internalNodes>
        0 -1 127344 -7.6533280662260950e-05</internalNodes>
      <leafValues>
        -5.0415050983428955e-01 2.1948468685150146e-01</leafValues></_>
    <_>
      <internalNodes>
        0 -1 167893 7.5779430335387588e-04</internalNodes>
      <leafValues>
        1.3421152532100677e-01 -6.6090208292007446e-01</leafValues></_>
    <_>
      <internalNodes>
        0 -1 189285 7.4336596298962831e-04</internalNodes>
      <leafValues>
        1.0498826950788498e-01 -8.1393635272979736e-01</leafValues></_>
    <_>
      <internalNodes>
        0 -1 172561 1.0509481398912612e-05</internalNodes>
      <leafValues>
        1.8558868765830994e-01 -4.0303358435630798e-01</leafValues></_>
    <_>
      <internalNodes>
        0 -1 121585 4.9104382924269885e-05</internalNodes>
      <leafValues>
        2.1700470149517059e-01 -3.5509139299392700e-01</leafValues></_>
    <_>
      <internalNodes>
        0 -1 42547 -3.5024997487198561e-05</internalNodes>
      <leafValues>
        -4.0575319528579712e-01 2.0091281831264496e-01</leafValues></_>
    <_>
      <internalNodes>
        0 -1 181541 1.2324476847425103e-04</internalNodes>
      <leafValues>
        1.5603341162204742e-01 -4.9821978807449341e-01</leafValues></_></weakClassifiers></stage0>
</opencv_storage>
