<?xml version="1.0"?>
<opencv_storage>
<stage12>
  <maxWeakCount>97</maxWeakCount>
  <stageThreshold>-2.3364863395690918e+00</stageThreshold>
  <weakClassifiers>
    <_>
      <internalNodes>
        0 -1 100569 1.2104007182642817e-03</internalNodes>
      <leafValues>
        -7.3993092775344849e-01 -2.4675324559211731e-01</leafValues></_>
    <_>
      <internalNodes>
        0 -1 99804 -4.7920137876644731e-04</internalNodes>
      <leafValues>
        3.1012997031211853e-01 -3.4991607069969177e-01</leafValues></_>
    <_>
      <internalNodes>
        0 -1 100211 1.2899505964014679e-04</internalNodes>
      <leafValues>
        -2.5722783803939819e-01 3.2763409614562988e-01</leafValues></_>
    <_>
      <internalNodes>
        0 -1 145139 -2.7231790591031313e-04</internalNodes>
      <leafValues>
        2.7653402090072632e-01 -2.1470640599727631e-01</leafValues></_>
    <_>
      <internalNodes>
        0 -1 120256 1.8360462854616344e-04</internalNodes>
      <leafValues>
        -2.0302769541740417e-01 2.5839424133300781e-01</leafValues></_>
    <_>
      <internalNodes>
        0 -1 188338 1.2362733483314514e-02</internalNodes>
      <leafValues>
        -6.0132380574941635e-02 7.7421903610229492e-01</leafValues></_>
    <_>
      <internalNodes>
        0 -1 18176 1.5265549882315099e-04</internalNodes>
      <leafValues>
        -1.6615729033946991e-01 2.3711006343364716e-01</leafValues></_>
    <_>
      <internalNodes>
        0 -1 187855 9.9121265520807356e-05</internalNodes>
      <leafValues>
        1.0527597367763519e-01 -3.6446347832679749e-01</leafValues></_>
    <_>
      <internalNodes>
        0 -1 138077 -7.6346676796674728e-03</internalNodes>
      <leafValues>
        4.9454522132873535e-01 -7.9321734607219696e-02</leafValues></_>
    <_>
      <internalNodes>
        0 -1 154130 6.5272357314825058e-03</internalNodes>
      <leafValues>
        4.6075694262981415e-02 -9.4634276628494263e-01</leafValues></_>
    <_>
      <internalNodes>
        0 -1 21464 -1.6892084386199713e-03</internalNodes>
      <leafValues>
        3.6954361200332642e-01 -1.2183307856321335e-01</leafValues></_>
    <_>
      <internalNodes>
        0 -1 37270 5.3713368251919746e-03</internalNodes>
      <leafValues>
        -6.7933067679405212e-02 5.4318749904632568e-01</leafValues></_>
    <_>
      <internalNodes>
        0 -1 118294 7.4438418960198760e-04</internalNodes>
      <leafValues>
        6.1730392277240753e-02 -6.3305705785751343e-01</leafValues></_>
    <_>
      <internalNodes>
        0 -1 13124 -3.7792727351188660e-02</internalNodes>
      <leafValues>
        -9.5189982652664185e-01 3.2361581921577454e-02</leafValues></_>
    <_>
      <internalNodes>
        0 -1 1371 7.4152415618300438e-04</internalNodes>
      <leafValues>
        -1.7384141683578491e-01 2.0982506871223450e-01</leafValues></_>
    <_>
      <internalNodes>
        0 -1 111145 -1.1750301346182823e-03</internalNodes>
      <leafValues>
        -6.7308187484741211e-01 4.7703057527542114e-02</leafValues></_>
    <_>
      <internalNodes>
        0 -1 111480 8.4150093607604504e-04</internalNodes>
      <leafValues>
        -1.2765260040760040e-01 3.2312133908271790e-01</leafValues></_>
    <_>
      <internalNodes>
        0 -1 184555 2.4544054758735001e-04</internalNodes>
      <leafValues>
        1.0147764533758163e-01 -3.7173417210578918e-01</leafValues></_>
    <_>
      <internalNodes>
        0 -1 156929 3.0020712874829769e-03</internalNodes>
      <leafValues>
        -8.6975686252117157e-02 4.4555410742759705e-01</leafValues></_>
    <_>
      <internalNodes>
        0 -1 153132 -1.8048899073619395e-04</internalNodes>
      <leafValues>
        -4.5069327950477600e-01 8.5819870233535767e-02</leafValues></_>
    <_>
      <internalNodes>
        0 -1 157221 -1.2642942601814866e-03</internalNodes>
      <leafValues>
        4.5193725824356079e-01 -9.5504187047481537e-02</leafValues></_>
    <_>
      <internalNodes>
        0 -1 73601 3.5159280523657799e-03</internalNodes>
      <leafValues>
        1.0233913362026215e-01 -4.1489633917808533e-01</leafValues></_>
    <_>
      <internalNodes>
        0 -1 179771 -2.4605385260656476e-04</internalNodes>
      <leafValues>
        -3.7342473864555359e-01 9.0601444244384766e-02</leafValues></_>
    <_>
      <internalNodes>
        0 -1 181209 -2.8303451836109161e-04</internalNodes>
      <leafValues>
        3.5923510789871216e-01 -1.2127961963415146e-01</leafValues></_>
    <_>
      <internalNodes>
        0 -1 188389 7.9521059524267912e-04</internalNodes>
      <leafValues>
        7.5580433011054993e-02 -4.6983563899993896e-01</leafValues></_>
    <_>
      <internalNodes>
        0 -1 124409 -1.3198109809309244e-03</internalNodes>
      <leafValues>
        2.8848418593406677e-01 -1.4410237967967987e-01</leafValues></_>
    <_>
      <internalNodes>
        0 -1 135498 -6.2180217355489731e-04</internalNodes>
      <leafValues>
        -4.9752452969551086e-01 7.2517015039920807e-02</leafValues></_>
    <_>
      <internalNodes>
        0 -1 189207 2.6625129394233227e-03</internalNodes>
      <leafValues>
        -8.1369794905185699e-02 4.9006190896034241e-01</leafValues></_>
    <_>
      <internalNodes>
        0 -1 14468 -2.7744513936340809e-03</internalNodes>
      <leafValues>
        -5.6070882081985474e-01 6.6773921251296997e-02</leafValues></_>
    <_>
      <internalNodes>
        0 -1 68281 1.0841148905456066e-03</internalNodes>
      <leafValues>
        -1.2490554898977280e-01 3.4290996193885803e-01</leafValues></_>
    <_>
      <internalNodes>
        0 -1 146155 -2.3201988078653812e-03</internalNodes>
      <leafValues>
        -5.9269648790359497e-01 5.3810242563486099e-02</leafValues></_>
    <_>
      <internalNodes>
        0 -1 101186 2.0936860528308898e-04</internalNodes>
      <leafValues>
        -1.1492723226547241e-01 3.2700905203819275e-01</leafValues></_>
    <_>
      <internalNodes>
        0 -1 26942 1.4015175111126155e-04</internalNodes>
      <leafValues>
        1.2330886721611023e-01 -2.8324109315872192e-01</leafValues></_>
    <_>
      <internalNodes>
        0 -1 99353 -9.5979653997346759e-04</internalNodes>
      <leafValues>
        4.8391047120094299e-01 -6.5325535833835602e-02</leafValues></_>
    <_>
      <internalNodes>
        0 -1 113141 4.6600747737102211e-04</internalNodes>
      <leafValues>
        1.3176159560680389e-01 -2.5029927492141724e-01</leafValues></_>
    <_>
      <internalNodes>
        0 -1 153356 -7.4686878360807896e-04</internalNodes>
      <leafValues>
        3.3832517266273499e-01 -1.1395325511693954e-01</leafValues></_>
    <_>
      <internalNodes>
        0 -1 151591 2.9963930137455463e-04</internalNodes>
      <leafValues>
        7.2835400700569153e-02 -4.6169230341911316e-01</leafValues></_>
    <_>
      <internalNodes>
        0 -1 189907 7.3654064908623695e-04</internalNodes>
      <leafValues>
        -5.3889647126197815e-02 6.6520774364471436e-01</leafValues></_>
    <_>
      <internalNodes>
        0 -1 8573 8.3856552839279175e-02</internalNodes>
      <leafValues>
        -5.0739150494337082e-02 6.4401525259017944e-01</leafValues></_>
    <_>
      <internalNodes>
        0 -1 109736 -5.6884379591792822e-04</internalNodes>
      <leafValues>
        -2.7289569377899170e-01 1.3703863322734833e-01</leafValues></_>
    <_>
      <internalNodes>
        0 -1 157206 -6.5072916913777590e-04</internalNodes>
      <leafValues>
        6.2937527894973755e-01 -5.8745153248310089e-02</leafValues></_>
    <_>
      <internalNodes>
        0 -1 161512 -3.4717278322204947e-04</internalNodes>
      <leafValues>
        3.2500243186950684e-01 -1.0317812860012054e-01</leafValues></_>
    <_>
      <internalNodes>
        0 -1 119143 1.0258709080517292e-03</internalNodes>
      <leafValues>
        5.8842852711677551e-02 -6.5258991718292236e-01</leafValues></_>
    <_>
      <internalNodes>
        0 -1 74588 -1.6552277375012636e-03</internalNodes>
      <leafValues>
        -2.9689669609069824e-01 1.1070061475038528e-01</leafValues></_>
    <_>
      <internalNodes>
        0 -1 170901 -3.6936024116585031e-05</internalNodes>
      <leafValues>
        3.2088360190391541e-01 -1.1945414543151855e-01</leafValues></_>
    <_>
      <internalNodes>
        0 -1 3334 -2.1671605645678937e-04</internalNodes>
      <leafValues>
        -3.0522710084915161e-01 1.1443146318197250e-01</leafValues></_>
    <_>
      <internalNodes>
        0 -1 67653 5.7917996309697628e-03</internalNodes>
      <leafValues>
        -1.0152772814035416e-01 3.8182500004768372e-01</leafValues></_>
    <_>
      <internalNodes>
        0 -1 61976 -6.5149983856827021e-04</internalNodes>
      <leafValues>
        4.7940409183502197e-01 -8.6307212710380554e-02</leafValues></_>
    <_>
      <internalNodes>
        0 -1 53405 1.1976240784861147e-05</internalNodes>
      <leafValues>
        1.2829396128654480e-01 -3.2257837057113647e-01</leafValues></_>
    <_>
      <internalNodes>
        0 -1 7953 -8.4184585139155388e-03</internalNodes>
      <leafValues>
        4.3411514163017273e-01 -8.2715399563312531e-02</leafValues></_>
    <_>
      <internalNodes>
        0 -1 163413 5.8671729639172554e-03</internalNodes>
      <leafValues>
        4.9831114709377289e-02 -7.0147675275802612e-01</leafValues></_>
    <_>
      <internalNodes>
        0 -1 99782 -1.1647226347122341e-04</internalNodes>
      <leafValues>
        2.9297363758087158e-01 -1.2546011805534363e-01</leafValues></_>
    <_>
      <internalNodes>
        0 -1 159669 1.0076623584609479e-04</internalNodes>
      <leafValues>
        7.7620007097721100e-02 -4.7901573777198792e-01</leafValues></_>
    <_>
      <internalNodes>
        0 -1 185538 1.8156910664401948e-04</internalNodes>
      <leafValues>
        7.5526982545852661e-02 -4.6003699302673340e-01</leafValues></_>
    <_>
      <internalNodes>
        0 -1 183086 -8.8756071636453271e-04</internalNodes>
      <leafValues>
        3.1804406642913818e-01 -1.1204358190298080e-01</leafValues></_>
    <_>
      <internalNodes>
        0 -1 165945 1.3453772407956421e-04</internalNodes>
      <leafValues>
        9.6274502575397491e-02 -3.2352882623672485e-01</leafValues></_>
    <_>
      <internalNodes>
        0 -1 145309 -4.2589306831359863e-03</internalNodes>
      <leafValues>
        5.2590948343276978e-01 -6.0933757573366165e-02</leafValues></_>
    <_>
      <internalNodes>
        0 -1 52366 -1.8793127965182066e-03</internalNodes>
      <leafValues>
        -6.2270140647888184e-01 6.2756024301052094e-02</leafValues></_>
    <_>
      <internalNodes>
        0 -1 186599 6.3609648495912552e-03</internalNodes>
      <leafValues>
        -4.3707877397537231e-02 9.5489984750747681e-01</leafValues></_>
    <_>
      <internalNodes>
        0 -1 77716 2.8723287396132946e-03</internalNodes>
      <leafValues>
        5.7917371392250061e-02 -6.7100226879119873e-01</leafValues></_>
    <_>
      <internalNodes>
        0 -1 161500 2.5962322251871228e-04</internalNodes>
      <leafValues>
        -9.2416003346443176e-02 3.8292068243026733e-01</leafValues></_>
    <_>
      <internalNodes>
        0 -1 186124 9.7352487500756979e-05</internalNodes>
      <leafValues>
        8.0660343170166016e-02 -4.9296361207962036e-01</leafValues></_>
    <_>
      <internalNodes>
        0 -1 74399 -3.6181530449539423e-03</internalNodes>
      <leafValues>
        6.8007117509841919e-01 -5.6126929819583893e-02</leafValues></_>
    <_>
      <internalNodes>
        0 -1 118758 -6.8832798860967159e-03</internalNodes>
      <leafValues>
        -6.2588471174240112e-01 6.5811969339847565e-02</leafValues></_>
    <_>
      <internalNodes>
        0 -1 91177 9.9366193171590567e-04</internalNodes>
      <leafValues>
        -9.6973396837711334e-02 4.6645885705947876e-01</leafValues></_>
    <_>
      <internalNodes>
        0 -1 79520 -1.2354502454400063e-02</internalNodes>
      <leafValues>
        -5.0465893745422363e-01 7.3485486209392548e-02</leafValues></_>
    <_>
      <internalNodes>
        0 -1 130346 7.3616305598989129e-05</internalNodes>
      <leafValues>
        -1.2760849297046661e-01 2.7858099341392517e-01</leafValues></_>
    <_>
      <internalNodes>
        0 -1 170826 5.8111741964239627e-05</internalNodes>
      <leafValues>
        8.6930081248283386e-02 -4.2268988490104675e-01</leafValues></_>
    <_>
      <internalNodes>
        0 -1 87948 1.3970503350719810e-03</internalNodes>
      <leafValues>
        -9.6403971314430237e-02 3.9353376626968384e-01</leafValues></_>
    <_>
      <internalNodes>
        0 -1 72102 -4.3848883360624313e-03</internalNodes>
      <leafValues>
        -4.4272604584693909e-01 8.0060176551342010e-02</leafValues></_>
    <_>
      <internalNodes>
        0 -1 94616 -1.3400669558905065e-04</internalNodes>
      <leafValues>
        4.0881267189979553e-01 -8.8470906019210815e-02</leafValues></_>
    <_>
      <internalNodes>
        0 -1 20607 -1.8558376468718052e-03</internalNodes>
      <leafValues>
        -3.2788944244384766e-01 1.1874657869338989e-01</leafValues></_>
    <_>
      <internalNodes>
        0 -1 111187 -8.2431285409256816e-04</internalNodes>
      <leafValues>
        3.0402803421020508e-01 -1.1346098780632019e-01</leafValues></_>
    <_>
      <internalNodes>
        0 -1 158285 1.3874044270778541e-05</internalNodes>
      <leafValues>
        1.1092592030763626e-01 -2.9478946328163147e-01</leafValues></_>
    <_>
      <internalNodes>
        0 -1 95660 -2.7047933544963598e-03</internalNodes>
      <leafValues>
        -7.3160994052886963e-01 4.1856419295072556e-02</leafValues></_>
    <_>
      <internalNodes>
        0 -1 93109 -1.0472601279616356e-03</internalNodes>
      <leafValues>
        5.0646471977233887e-01 -7.4361003935337067e-02</leafValues></_>
    <_>
      <internalNodes>
        0 -1 56272 2.7650624979287386e-03</internalNodes>
      <leafValues>
        4.4346559792757034e-02 -7.1834266185760498e-01</leafValues></_>
    <_>
      <internalNodes>
        0 -1 182352 -7.3231328278779984e-03</internalNodes>
      <leafValues>
        9.1287213563919067e-01 -4.4620703905820847e-02</leafValues></_>
    <_>
      <internalNodes>
        0 -1 111993 9.7083998844027519e-04</internalNodes>
      <leafValues>
        4.6090539544820786e-02 -7.7329117059707642e-01</leafValues></_>
    <_>
      <internalNodes>
        0 -1 162632 2.0767785608768463e-03</internalNodes>
      <leafValues>
        -6.7982934415340424e-02 4.6603742241859436e-01</leafValues></_>
    <_>
      <internalNodes>
        0 -1 180301 4.8296415479853749e-04</internalNodes>
      <leafValues>
        7.9238362610340118e-02 -4.1553631424903870e-01</leafValues></_>
    <_>
      <internalNodes>
        0 -1 50918 1.6151305288076401e-02</internalNodes>
      <leafValues>
        -6.6328592598438263e-02 5.0198614597320557e-01</leafValues></_>
    <_>
      <internalNodes>
        0 -1 110229 -1.1438666842877865e-03</internalNodes>
      <leafValues>
        -6.1462509632110596e-01 4.7722641378641129e-02</leafValues></_>
    <_>
      <internalNodes>
        0 -1 190323 -1.3038163888268173e-04</internalNodes>
      <leafValues>
        3.7834343314170837e-01 -8.3285011351108551e-02</leafValues></_>
    <_>
      <internalNodes>
        0 -1 40451 1.0728597640991211e-02</internalNodes>
      <leafValues>
        8.3841457962989807e-02 -3.7831434607505798e-01</leafValues></_>
    <_>
      <internalNodes>
        0 -1 120717 -1.0074283927679062e-03</internalNodes>
      <leafValues>
        5.0455403327941895e-01 -6.1545446515083313e-02</leafValues></_>
    <_>
      <internalNodes>
        0 -1 183039 1.0412405572424177e-05</internalNodes>
      <leafValues>
        6.6048868000507355e-02 -3.9941909909248352e-01</leafValues></_>
    <_>
      <internalNodes>
        0 -1 107138 1.0687500238418579e-02</internalNodes>
      <leafValues>
        -5.7194702327251434e-02 4.7832298278808594e-01</leafValues></_>
    <_>
      <internalNodes>
        0 -1 187329 7.8184396261349320e-04</internalNodes>
      <leafValues>
        3.4819349646568298e-02 -6.7808830738067627e-01</leafValues></_>
    <_>
      <internalNodes>
        0 -1 72560 -9.5574855804443359e-03</internalNodes>
      <leafValues>
        8.4285151958465576e-01 -3.3153750002384186e-02</leafValues></_>
    <_>
      <internalNodes>
        0 -1 135503 -5.4394765757024288e-03</internalNodes>
      <leafValues>
        -9.0355640649795532e-01 3.5398777574300766e-02</leafValues></_>
    <_>
      <internalNodes>
        0 -1 61189 -1.0759925935417414e-03</internalNodes>
      <leafValues>
        6.8005144596099854e-01 -5.1540162414312363e-02</leafValues></_>
    <_>
      <internalNodes>
        0 -1 29798 6.0129135847091675e-02</internalNodes>
      <leafValues>
        3.3388253301382065e-02 -7.6059305667877197e-01</leafValues></_>
    <_>
      <internalNodes>
        0 -1 169010 -1.9580541178584099e-02</internalNodes>
      <leafValues>
        4.8197937011718750e-01 -5.8345708996057510e-02</leafValues></_>
    <_>
      <internalNodes>
        0 -1 148908 1.4994753291830420e-04</internalNodes>
      <leafValues>
        5.4836411029100418e-02 -5.8039456605911255e-01</leafValues></_>
    <_>
      <internalNodes>
        0 -1 181154 -8.1040758232120425e-05</internalNodes>
      <leafValues>
        3.1559443473815918e-01 -7.3517173528671265e-02</leafValues></_>
    <_>
      <internalNodes>
        0 -1 80833 1.0469982225913554e-04</internalNodes>
      <leafValues>
        9.2161290347576141e-02 -3.5753542184829712e-01</leafValues></_></weakClassifiers></stage12>
</opencv_storage>
