<?xml version="1.0"?>
<opencv_storage>
<stage8>
  <maxWeakCount>41</maxWeakCount>
  <stageThreshold>-1.9271734952926636e+00</stageThreshold>
  <weakClassifiers>
    <_>
      <internalNodes>
        0 -1 49250 3.9072873187251389e-04</internalNodes>
      <leafValues>
        -7.4208146333694458e-01 -2.0370370149612427e-01</leafValues></_>
    <_>
      <internalNodes>
        0 -1 49368 -4.6516954898834229e-04</internalNodes>
      <leafValues>
        3.0386745929718018e-01 -3.5124552249908447e-01</leafValues></_>
    <_>
      <internalNodes>
        0 -1 21511 7.8065064735710621e-04</internalNodes>
      <leafValues>
        -2.3985947668552399e-01 3.3156049251556396e-01</leafValues></_>
    <_>
      <internalNodes>
        0 -1 116665 -3.1615726184099913e-03</internalNodes>
      <leafValues>
        3.8010165095329285e-01 -1.8133093416690826e-01</leafValues></_>
    <_>
      <internalNodes>
        0 -1 110447 1.8732587341219187e-03</internalNodes>
      <leafValues>
        -1.2336616963148117e-01 4.3137124180793762e-01</leafValues></_>
    <_>
      <internalNodes>
        0 -1 27214 2.5528723001480103e-01</internalNodes>
      <leafValues>
        -5.7552784681320190e-02 7.4389350414276123e-01</leafValues></_>
    <_>
      <internalNodes>
        0 -1 32074 -2.7477912604808807e-02</internalNodes>
      <leafValues>
        3.1590908765792847e-01 -1.8016988039016724e-01</leafValues></_>
    <_>
      <internalNodes>
        0 -1 189921 -4.2362872045487165e-04</internalNodes>
      <leafValues>
        3.2413065433502197e-01 -1.5920016169548035e-01</leafValues></_>
    <_>
      <internalNodes>
        0 -1 38373 -3.5996828228235245e-02</internalNodes>
      <leafValues>
        4.1024497151374817e-01 -1.1045496910810471e-01</leafValues></_>
    <_>
      <internalNodes>
        0 -1 101180 -4.2680771002778783e-05</internalNodes>
      <leafValues>
        -3.6341708898544312e-01 1.5037839114665985e-01</leafValues></_>
    <_>
      <internalNodes>
        0 -1 180478 -1.8084901967085898e-04</internalNodes>
      <leafValues>
        3.2013574242591858e-01 -1.5875582396984100e-01</leafValues></_>
    <_>
      <internalNodes>
        0 -1 22670 1.0702938307076693e-03</internalNodes>
      <leafValues>
        8.5939154028892517e-02 -6.2649774551391602e-01</leafValues></_>
    <_>
      <internalNodes>
        0 -1 140904 1.3498140498995781e-02</internalNodes>
      <leafValues>
        -9.7067445516586304e-02 5.6112241744995117e-01</leafValues></_>
    <_>
      <internalNodes>
        0 -1 90488 8.0637950450181961e-03</internalNodes>
      <leafValues>
        5.6436773389577866e-02 -8.5705780982971191e-01</leafValues></_>
    <_>
      <internalNodes>
        0 -1 164800 8.1005529500544071e-04</internalNodes>
      <leafValues>
        -1.0647019743919373e-01 4.3169873952865601e-01</leafValues></_>
    <_>
      <internalNodes>
        0 -1 185423 4.5230827527120709e-04</internalNodes>
      <leafValues>
        1.0031206160783768e-01 -4.8886319994926453e-01</leafValues></_>
    <_>
      <internalNodes>
        0 -1 185023 -1.4179531717672944e-04</internalNodes>
      <leafValues>
        2.8968456387519836e-01 -1.4844596385955811e-01</leafValues></_>
    <_>
      <internalNodes>
        0 -1 33199 1.1052875379391480e-05</internalNodes>
      <leafValues>
        1.6505272686481476e-01 -2.8582376241683960e-01</leafValues></_>
    <_>
      <internalNodes>
        0 -1 190365 2.4914874229580164e-03</internalNodes>
      <leafValues>
        -6.8433903157711029e-02 5.8502149581909180e-01</leafValues></_>
    <_>
      <internalNodes>
        0 -1 173958 -7.5141736306250095e-04</internalNodes>
      <leafValues>
        -3.6173480749130249e-01 1.2992623448371887e-01</leafValues></_>
    <_>
      <internalNodes>
        0 -1 185504 -7.1624340489506721e-04</internalNodes>
      <leafValues>
        -8.3288377523422241e-01 5.0754826515913010e-02</leafValues></_>
    <_>
      <internalNodes>
        0 -1 130492 1.8309880397282541e-04</internalNodes>
      <leafValues>
        -1.4518734812736511e-01 2.8486418724060059e-01</leafValues></_>
    <_>
      <internalNodes>
        0 -1 187822 5.9559947112575173e-04</internalNodes>
      <leafValues>
        6.4445294439792633e-02 -5.8752387762069702e-01</leafValues></_>
    <_>
      <internalNodes>
        0 -1 53994 -4.3428671779111028e-04</internalNodes>
      <leafValues>
        2.9524779319763184e-01 -1.4603729546070099e-01</leafValues></_>
    <_>
      <internalNodes>
        0 -1 51171 1.0767945241241250e-05</internalNodes>
      <leafValues>
        1.3352210819721222e-01 -3.4699603915214539e-01</leafValues></_>
    <_>
      <internalNodes>
        0 -1 100208 -1.6934187151491642e-03</internalNodes>
      <leafValues>
        4.4312724471092224e-01 -8.7758414447307587e-02</leafValues></_>
    <_>
      <internalNodes>
        0 -1 169261 1.1549574992386624e-05</internalNodes>
      <leafValues>
        1.2169790267944336e-01 -3.5940432548522949e-01</leafValues></_>
    <_>
      <internalNodes>
        0 -1 26929 2.2279858239926398e-04</internalNodes>
      <leafValues>
        -1.2050452083349228e-01 3.6640968918800354e-01</leafValues></_>
    <_>
      <internalNodes>
        0 -1 121567 1.8565464415587485e-04</internalNodes>
      <leafValues>
        1.0136404633522034e-01 -4.7134903073310852e-01</leafValues></_>
    <_>
      <internalNodes>
        0 -1 159760 -7.0838766987435520e-05</internalNodes>
      <leafValues>
        3.6163073778152466e-01 -1.2281838804483414e-01</leafValues></_>
    <_>
      <internalNodes>
        0 -1 179492 6.6157500259578228e-04</internalNodes>
      <leafValues>
        7.5723685324192047e-02 -6.3760906457901001e-01</leafValues></_>
    <_>
      <internalNodes>
        0 -1 77517 -1.0091949661727995e-05</internalNodes>
      <leafValues>
        -3.9616489410400391e-01 1.1102878302335739e-01</leafValues></_>
    <_>
      <internalNodes>
        0 -1 158082 2.0196737023070455e-04</internalNodes>
      <leafValues>
        -1.5726505219936371e-01 3.0818393826484680e-01</leafValues></_>
    <_>
      <internalNodes>
        0 -1 13684 3.4637905191630125e-03</internalNodes>
      <leafValues>
        6.9385759532451630e-02 -6.2947106361389160e-01</leafValues></_>
    <_>
      <internalNodes>
        0 -1 141955 1.1005319720425177e-05</internalNodes>
      <leafValues>
        1.0544571280479431e-01 -4.0197476744651794e-01</leafValues></_>
    <_>
      <internalNodes>
        0 -1 85473 -2.7833799831569195e-03</internalNodes>
      <leafValues>
        5.6222891807556152e-01 -9.3945801258087158e-02</leafValues></_>
    <_>
      <internalNodes>
        0 -1 177166 7.2568145697005093e-05</internalNodes>
      <leafValues>
        -1.3694351911544800e-01 2.9658129811286926e-01</leafValues></_>
    <_>
      <internalNodes>
        0 -1 146849 1.9149418221786618e-04</internalNodes>
      <leafValues>
        1.6184233129024506e-01 -2.7153798937797546e-01</leafValues></_>
    <_>
      <internalNodes>
        0 -1 169164 -1.8412144854664803e-03</internalNodes>
      <leafValues>
        6.5567362308502197e-01 -6.7129857838153839e-02</leafValues></_>
    <_>
      <internalNodes>
        0 -1 146690 -3.8036303594708443e-03</internalNodes>
      <leafValues>
        -8.5880863666534424e-01 5.7272866368293762e-02</leafValues></_>
    <_>
      <internalNodes>
        0 -1 108558 -9.5254130428656936e-05</internalNodes>
      <leafValues>
        -2.8291448950767517e-01 1.3432273268699646e-01</leafValues></_></weakClassifiers></stage8>
</opencv_storage>
