<?xml version="1.0"?>
<opencv_storage>
<stage9>
  <maxWeakCount>90</maxWeakCount>
  <stageThreshold>-2.3436846733093262e+00</stageThreshold>
  <weakClassifiers>
    <_>
      <internalNodes>
        0 -1 148016 3.1443656189367175e-04</internalNodes>
      <leafValues>
        -7.7941179275512695e-01 -2.2535210847854614e-01</leafValues></_>
    <_>
      <internalNodes>
        0 -1 12222 2.8740620473399758e-04</internalNodes>
      <leafValues>
        -4.2331498861312866e-01 2.6861372590065002e-01</leafValues></_>
    <_>
      <internalNodes>
        0 -1 119881 1.7183495219796896e-04</internalNodes>
      <leafValues>
        -2.5277760624885559e-01 3.4372892975807190e-01</leafValues></_>
    <_>
      <internalNodes>
        0 -1 147608 1.9482213538140059e-03</internalNodes>
      <leafValues>
        -2.0700289309024811e-01 3.4737354516983032e-01</leafValues></_>
    <_>
      <internalNodes>
        0 -1 100906 2.2851640824228525e-04</internalNodes>
      <leafValues>
        -2.1425387263298035e-01 2.8997820615768433e-01</leafValues></_>
    <_>
      <internalNodes>
        0 -1 148584 4.3535442091524601e-04</internalNodes>
      <leafValues>
        -1.9042205810546875e-01 2.8251498937606812e-01</leafValues></_>
    <_>
      <internalNodes>
        0 -1 38591 6.7918398417532444e-04</internalNodes>
      <leafValues>
        1.1272870004177094e-01 -4.6730685234069824e-01</leafValues></_>
    <_>
      <internalNodes>
        0 -1 185895 1.4315228327177465e-04</internalNodes>
      <leafValues>
        -2.1366815268993378e-01 2.7364927530288696e-01</leafValues></_>
    <_>
      <internalNodes>
        0 -1 146319 1.7816054169088602e-03</internalNodes>
      <leafValues>
        8.0551929771900177e-02 -6.2300693988800049e-01</leafValues></_>
    <_>
      <internalNodes>
        0 -1 81299 -3.7955457810312510e-03</internalNodes>
      <leafValues>
        3.3178111910820007e-01 -1.5750305354595184e-01</leafValues></_>
    <_>
      <internalNodes>
        0 -1 52867 1.3196670915931463e-03</internalNodes>
      <leafValues>
        5.9650462120771408e-02 -8.6809670925140381e-01</leafValues></_>
    <_>
      <internalNodes>
        0 -1 103231 3.2714851200580597e-02</internalNodes>
      <leafValues>
        4.1790038347244263e-02 -7.6633334159851074e-01</leafValues></_>
    <_>
      <internalNodes>
        0 -1 100256 2.1043578162789345e-03</internalNodes>
      <leafValues>
        -1.5626770257949829e-01 2.9899272322654724e-01</leafValues></_>
    <_>
      <internalNodes>
        0 -1 137934 -1.9902440544683486e-04</internalNodes>
      <leafValues>
        -4.9573066830635071e-01 1.0128793865442276e-01</leafValues></_>
    <_>
      <internalNodes>
        0 -1 183278 1.2905069161206484e-03</internalNodes>
      <leafValues>
        -1.3677550852298737e-01 3.5455918312072754e-01</leafValues></_>
    <_>
      <internalNodes>
        0 -1 172259 1.9586464622989297e-04</internalNodes>
      <leafValues>
        9.8808586597442627e-02 -5.0229823589324951e-01</leafValues></_>
    <_>
      <internalNodes>
        0 -1 40512 -1.8132838886231184e-03</internalNodes>
      <leafValues>
        2.5213953852653503e-01 -1.6937440633773804e-01</leafValues></_>
    <_>
      <internalNodes>
        0 -1 166512 -1.4897844521328807e-03</internalNodes>
      <leafValues>
        -5.5201762914657593e-01 8.2818195223808289e-02</leafValues></_>
    <_>
      <internalNodes>
        0 -1 175110 -2.3962922394275665e-02</internalNodes>
      <leafValues>
        6.4704161882400513e-01 -8.2766577601432800e-02</leafValues></_>
    <_>
      <internalNodes>
        0 -1 153209 -3.9022420533001423e-03</internalNodes>
      <leafValues>
        -8.2919096946716309e-01 6.1843078583478928e-02</leafValues></_>
    <_>
      <internalNodes>
        0 -1 92269 -5.6498113553971052e-04</internalNodes>
      <leafValues>
        4.1457605361938477e-01 -9.7689516842365265e-02</leafValues></_>
    <_>
      <internalNodes>
        0 -1 67899 8.3997438196092844e-04</internalNodes>
      <leafValues>
        7.2338074445724487e-02 -6.4394831657409668e-01</leafValues></_>
    <_>
      <internalNodes>
        0 -1 159606 -4.7358777374029160e-04</internalNodes>
      <leafValues>
        -4.2987188696861267e-01 8.6312055587768555e-02</leafValues></_>
    <_>
      <internalNodes>
        0 -1 189740 -7.8396301250904799e-04</internalNodes>
      <leafValues>
        2.8337562084197998e-01 -1.4710603654384613e-01</leafValues></_>
    <_>
      <internalNodes>
        0 -1 7693 2.6252469047904015e-02</internalNodes>
      <leafValues>
        3.9638556540012360e-02 -9.2668324708938599e-01</leafValues></_>
    <_>
      <internalNodes>
        0 -1 29193 -3.7265845458023250e-04</internalNodes>
      <leafValues>
        4.2909044027328491e-01 -1.0260403901338577e-01</leafValues></_>
    <_>
      <internalNodes>
        0 -1 170763 -1.1665360216284171e-04</internalNodes>
      <leafValues>
        -4.3752923607826233e-01 1.0776659846305847e-01</leafValues></_>
    <_>
      <internalNodes>
        0 -1 94011 4.9724848940968513e-03</internalNodes>
      <leafValues>
        4.7251876443624496e-02 -7.9477000236511230e-01</leafValues></_>
    <_>
      <internalNodes>
        0 -1 159519 -2.0605567842721939e-03</internalNodes>
      <leafValues>
        4.8877879977226257e-01 -9.3696787953376770e-02</leafValues></_>
    <_>
      <internalNodes>
        0 -1 109374 1.7637164564803243e-03</internalNodes>
      <leafValues>
        8.4248162806034088e-02 -4.4326785206794739e-01</leafValues></_>
    <_>
      <internalNodes>
        0 -1 4616 5.2403041627258062e-04</internalNodes>
      <leafValues>
        -1.4652316272258759e-01 2.9260578751564026e-01</leafValues></_>
    <_>
      <internalNodes>
        0 -1 11044 2.1873727440834045e-02</internalNodes>
      <leafValues>
        -7.3694318532943726e-02 5.7171505689620972e-01</leafValues></_>
    <_>
      <internalNodes>
        0 -1 63894 1.1142593393742573e-05</internalNodes>
      <leafValues>
        1.1360193043947220e-01 -3.9260044693946838e-01</leafValues></_>
    <_>
      <internalNodes>
        0 -1 190604 6.3343832152895629e-05</internalNodes>
      <leafValues>
        -1.1427322030067444e-01 3.9638987183570862e-01</leafValues></_>
    <_>
      <internalNodes>
        0 -1 98771 -7.3721792432479560e-05</internalNodes>
      <leafValues>
        -2.7244174480438232e-01 1.5986752510070801e-01</leafValues></_>
    <_>
      <internalNodes>
        0 -1 122642 8.1586535088717937e-05</internalNodes>
      <leafValues>
        -1.4956967532634735e-01 2.8833422064781189e-01</leafValues></_>
    <_>
      <internalNodes>
        0 -1 170118 -4.3234024196863174e-03</internalNodes>
      <leafValues>
        -4.1859939694404602e-01 9.3669615685939789e-02</leafValues></_>
    <_>
      <internalNodes>
        0 -1 98952 -2.5741360150277615e-03</internalNodes>
      <leafValues>
        3.2791939377784729e-01 -1.1701267957687378e-01</leafValues></_>
    <_>
      <internalNodes>
        0 -1 24036 -9.9244054581504315e-05</internalNodes>
      <leafValues>
        -4.7056403756141663e-01 8.9340165257453918e-02</leafValues></_>
    <_>
      <internalNodes>
        0 -1 111122 -5.3722521988674998e-04</internalNodes>
      <leafValues>
        -4.8224127292633057e-01 7.9336106777191162e-02</leafValues></_>
    <_>
      <internalNodes>
        0 -1 110222 4.7769694356247783e-04</internalNodes>
      <leafValues>
        -7.3466077446937561e-02 5.1390844583511353e-01</leafValues></_>
    <_>
      <internalNodes>
        0 -1 99395 -1.0267113102599978e-03</internalNodes>
      <leafValues>
        -4.5658558607101440e-01 8.3778768777847290e-02</leafValues></_>
    <_>
      <internalNodes>
        0 -1 101217 -3.0264137312769890e-03</internalNodes>
      <leafValues>
        5.4748356342315674e-01 -1.0231582820415497e-01</leafValues></_>
    <_>
      <internalNodes>
        0 -1 67476 -4.5213176053948700e-04</internalNodes>
      <leafValues>
        -3.6125811934471130e-01 1.0048764199018478e-01</leafValues></_>
    <_>
      <internalNodes>
        0 -1 159770 -1.8944077601190656e-04</internalNodes>
      <leafValues>
        3.1345921754837036e-01 -1.2336649745702744e-01</leafValues></_>
    <_>
      <internalNodes>
        0 -1 67551 -3.4440562129020691e-02</internalNodes>
      <leafValues>
        -8.6624014377593994e-01 4.2581476271152496e-02</leafValues></_>
    <_>
      <internalNodes>
        0 -1 72668 1.4396696351468563e-03</internalNodes>
      <leafValues>
        4.6803772449493408e-02 -7.1667230129241943e-01</leafValues></_>
    <_>
      <internalNodes>
        0 -1 62965 -5.6947857141494751e-02</internalNodes>
      <leafValues>
        -7.3765385150909424e-01 4.5884814113378525e-02</leafValues></_>
    <_>
      <internalNodes>
        0 -1 68387 3.8182508433237672e-04</internalNodes>
      <leafValues>
        -1.2987719476222992e-01 2.9791978001594543e-01</leafValues></_>
    <_>
      <internalNodes>
        0 -1 143586 4.4696405529975891e-04</internalNodes>
      <leafValues>
        6.6135168075561523e-02 -5.6077170372009277e-01</leafValues></_>
    <_>
      <internalNodes>
        0 -1 126958 1.6198717057704926e-03</internalNodes>
      <leafValues>
        -7.3703072965145111e-02 4.6664175391197205e-01</leafValues></_>
    <_>
      <internalNodes>
        0 -1 58736 4.7907204134389758e-05</internalNodes>
      <leafValues>
        8.3909563720226288e-02 -4.5127514004707336e-01</leafValues></_>
    <_>
      <internalNodes>
        0 -1 95462 -1.6763804014772177e-03</internalNodes>
      <leafValues>
        -6.8343842029571533e-01 5.3523395210504532e-02</leafValues></_>
    <_>
      <internalNodes>
        0 -1 153203 5.0630709156394005e-03</internalNodes>
      <leafValues>
        -1.1728834360837936e-01 3.5899949073791504e-01</leafValues></_>
    <_>
      <internalNodes>
        0 -1 153366 1.0836998699232936e-03</internalNodes>
      <leafValues>
        4.1591767221689224e-02 -7.4147170782089233e-01</leafValues></_>
    <_>
      <internalNodes>
        0 -1 132215 -1.4088917523622513e-02</internalNodes>
      <leafValues>
        -9.0532767772674561e-01 3.3402290195226669e-02</leafValues></_>
    <_>
      <internalNodes>
        0 -1 80377 7.9869740875437856e-04</internalNodes>
      <leafValues>
        -1.0358411818742752e-01 3.6022391915321350e-01</leafValues></_>
    <_>
      <internalNodes>
        0 -1 131882 1.1169195640832186e-03</internalNodes>
      <leafValues>
        4.9167383462190628e-02 -6.4951944351196289e-01</leafValues></_>
    <_>
      <internalNodes>
        0 -1 123491 -6.1930244555696845e-04</internalNodes>
      <leafValues>
        3.9311069250106812e-01 -8.7073341012001038e-02</leafValues></_>
    <_>
      <internalNodes>
        0 -1 1143 -1.5240570530295372e-02</internalNodes>
      <leafValues>
        -2.8047922253608704e-01 1.3316474854946136e-01</leafValues></_>
    <_>
      <internalNodes>
        0 -1 131142 1.6952591977315024e-05</internalNodes>
      <leafValues>
        1.3111880421638489e-01 -2.8159311413764954e-01</leafValues></_>
    <_>
      <internalNodes>
        0 -1 19029 7.5202908192295581e-05</internalNodes>
      <leafValues>
        -1.0597810149192810e-01 3.6124777793884277e-01</leafValues></_>
    <_>
      <internalNodes>
        0 -1 26841 8.4619391709566116e-03</internalNodes>
      <leafValues>
        -4.7354303300380707e-02 6.6183382272720337e-01</leafValues></_>
    <_>
      <internalNodes>
        0 -1 189846 -6.7303265677765012e-04</internalNodes>
      <leafValues>
        -6.5515935420989990e-01 6.0721185058355331e-02</leafValues></_>
    <_>
      <internalNodes>
        0 -1 80100 -6.5881158225238323e-03</internalNodes>
      <leafValues>
        -5.5239546298980713e-01 4.5176483690738678e-02</leafValues></_>
    <_>
      <internalNodes>
        0 -1 163838 7.3293317109346390e-04</internalNodes>
      <leafValues>
        -9.1199137270450592e-02 4.1745901107788086e-01</leafValues></_>
    <_>
      <internalNodes>
        0 -1 187855 -5.2675859478767961e-05</internalNodes>
      <leafValues>
        -3.9535254240036011e-01 8.0641679465770721e-02</leafValues></_>
    <_>
      <internalNodes>
        0 -1 118689 5.3094979375600815e-04</internalNodes>
      <leafValues>
        -7.5698994100093842e-02 5.0503778457641602e-01</leafValues></_>
    <_>
      <internalNodes>
        0 -1 168632 1.2584965588757768e-05</internalNodes>
      <leafValues>
        1.1084654927253723e-01 -3.0323091149330139e-01</leafValues></_>
    <_>
      <internalNodes>
        0 -1 152488 -1.7709864769130945e-03</internalNodes>
      <leafValues>
        4.5117610692977905e-01 -7.8313954174518585e-02</leafValues></_>
    <_>
      <internalNodes>
        0 -1 67679 -5.6438813917338848e-03</internalNodes>
      <leafValues>
        -9.6871846914291382e-01 3.2519567757844925e-02</leafValues></_>
    <_>
      <internalNodes>
        0 -1 66867 -2.2765416651964188e-02</internalNodes>
      <leafValues>
        6.4375543594360352e-01 -5.7362835854291916e-02</leafValues></_>
    <_>
      <internalNodes>
        0 -1 39612 9.9636090453714132e-06</internalNodes>
      <leafValues>
        7.2920545935630798e-02 -4.3193528056144714e-01</leafValues></_>
    <_>
      <internalNodes>
        0 -1 186497 -6.3552019128110260e-05</internalNodes>
      <leafValues>
        3.4152704477310181e-01 -9.0828396379947662e-02</leafValues></_>
    <_>
      <internalNodes>
        0 -1 25256 2.3119247052818537e-03</internalNodes>
      <leafValues>
        6.0377039015293121e-02 -5.0653421878814697e-01</leafValues></_>
    <_>
      <internalNodes>
        0 -1 138025 -1.1238763108849525e-02</internalNodes>
      <leafValues>
        -6.7808341979980469e-01 3.6664433777332306e-02</leafValues></_>
    <_>
      <internalNodes>
        0 -1 99362 -2.0122146233916283e-03</internalNodes>
      <leafValues>
        4.4597059488296509e-01 -8.7691493332386017e-02</leafValues></_>
    <_>
      <internalNodes>
        0 -1 190626 -5.0418260507285595e-03</internalNodes>
      <leafValues>
        5.9775918722152710e-01 -5.0622332841157913e-02</leafValues></_>
    <_>
      <internalNodes>
        0 -1 121140 -2.1906782058067620e-04</internalNodes>
      <leafValues>
        -5.7185411453247070e-01 5.8837432414293289e-02</leafValues></_>
    <_>
      <internalNodes>
        0 -1 9174 -3.0835622921586037e-02</internalNodes>
      <leafValues>
        -3.6268752813339233e-01 8.4534391760826111e-02</leafValues></_>
    <_>
      <internalNodes>
        0 -1 42380 -3.4968685940839350e-04</internalNodes>
      <leafValues>
        5.7036828994750977e-01 -6.6398635506629944e-02</leafValues></_>
    <_>
      <internalNodes>
        0 -1 90912 -4.3490985408425331e-03</internalNodes>
      <leafValues>
        -7.7770966291427612e-01 3.4849461168050766e-02</leafValues></_>
    <_>
      <internalNodes>
        0 -1 81513 1.4345857501029968e-01</internalNodes>
      <leafValues>
        -4.3842338025569916e-02 6.6424810886383057e-01</leafValues></_>
    <_>
      <internalNodes>
        0 -1 70388 -1.3918856158852577e-02</internalNodes>
      <leafValues>
        -8.2888096570968628e-01 3.7513401359319687e-02</leafValues></_>
    <_>
      <internalNodes>
        0 -1 61245 1.8393209204077721e-02</internalNodes>
      <leafValues>
        2.1947579458355904e-02 -1.</leafValues></_>
    <_>
      <internalNodes>
        0 -1 115053 -8.7470468133687973e-03</internalNodes>
      <leafValues>
        5.0312930345535278e-01 -5.8951199054718018e-02</leafValues></_>
    <_>
      <internalNodes>
        0 -1 181543 4.2213097913190722e-05</internalNodes>
      <leafValues>
        6.5622650086879730e-02 -4.0795788168907166e-01</leafValues></_>
    <_>
      <internalNodes>
        0 -1 141067 -2.7133410912938416e-04</internalNodes>
      <leafValues>
        4.0931442379951477e-01 -7.1935169398784637e-02</leafValues></_>
    <_>
      <internalNodes>
        0 -1 80556 -1.6045736148953438e-02</internalNodes>
      <leafValues>
        -6.6887116432189941e-01 3.8360912352800369e-02</leafValues></_>
    <_>
      <internalNodes>
        0 -1 90269 9.6405201475135982e-05</internalNodes>
      <leafValues>
        5.2942227572202682e-02 -4.4194987416267395e-01</leafValues></_></weakClassifiers></stage9>
</opencv_storage>
